{"Layers":[{"Neurons":[{"Bias":-0.00947252446120953,"Weights":[-0.003667192218486862,0.025775766025413746,-0.24365523430277738,-0.3111878413676134,-0.0947908007533212,2.9437631260638533,-3.695420041663783,-0.0080830740096676668,-0.16558876858323576,0.11587340922837745,0.13262859378456113,-0.036123610530251135,-0.34097184659716684,0.0750163906594705,-0.021212043968628292,-0.063616977795326768]},{"Bias":-0.29295718470331111,"Weights":[0.34421277668587569,0.0630843570900863,0.34780846752543643,-0.97643452593890168,-0.077866556315914645,-0.8806284089909413,0.047725961523673623,0.18647920050386063,-0.029847964267125573,-0.51355096051159255,0.24736329157010661,-0.0014229200084909515,-0.74993471974332571,0.013506061168806156,-0.058351894802313058,-0.018589709079299]},{"Bias":-0.027600686260507993,"Weights":[-0.067012903685016348,0.00031434775878902573,0.12278204568812563,-0.046931717341440304,-127.49872455613146,0.834118522938978,-0.066072933295602224,-3.8865883393064382,-0.026366794669278184,-0.31269317396203578,0.24754719988639157,0.085964176997653824,0.0018871646035019073,-0.0033435510886201782,0.51532210750155572,-0.0093237965495372287]},{"Bias":1.6806147587233371,"Weights":[-0.90499369877994906,-0.12558129228645057,0.27988064350596453,0.23544725408132372,0.13740935945385238,0.013878919179687428,-0.6412302043725141,-0.44503992383895941,0.10595672999953407,-0.25800181989767756,-0.012487412871923016,0.22804771439321092,0.54319471657180518,0.10378057004448378,-0.012992588360768838,0.050315241300836075]},{"Bias":0.00016086634835295964,"Weights":[-0.427331174394477,0.0123128961004695,-1.2851237673007898,0.049370912730668577,0.00077523396573981934,-0.0070562689744238551,2.2596375008186247E-06,-0.000454882663526803,-0.0060961503328436977,0.0081421079947054265,0.0026055504458140314,-0.00040665882459621462,-2.0536308047679163E-05,0.00052911339345248359,-0.0041680517702587169,36.810006423099459]},{"Bias":-2.876944484620029E-05,"Weights":[4.7862827273340938E-08,0.0602062551289571,-0.0054672569484639239,-0.00071486928468239271,0.049978443630698179,-0.019641287359804104,-0.00011413801479627731,0.00031335975069760578,-1.9691901669005191E-06,-0.00019794908402269884,-0.00080396966576425847,0.20051821784743043,-0.00059967510171591036,0.0027148578018375892,0.00080164030267695311,0.00040079037968141352]},{"Bias":0.040895399164593463,"Weights":[-0.094875134339817216,0.037206063333157388,0.036961652781552716,-0.25056655437469405,0.019756177461998061,0.14950549711951366,0.055987875774377277,-0.042157259244746226,0.6741940712821114,-0.22184157483371555,0.50664745036175529,-0.98117900199401142,-0.14875141733624384,-0.28903917504122967,0.10914971963878643,0.20184356668357059]},{"Bias":0.0065937436595988426,"Weights":[-0.034041346569710806,0.00010938386572583318,-0.0003126082070941762,13.482988874037284,2.6849671084872941E-06,1.6439782834367472E-05,-1.6246858253640191E-05,0.0002615326194869436,0.00054661462292348239,0.00018162780906277564,-9.0501145354189872E-05,1.8706994424568684E-06,0.0013350321950835883,0.0025340910085380752,-1.7399883964140082,0.013902173720568223]},{"Bias":-0.00015567818229650962,"Weights":[-0.0014981092405248978,0.0010319405429752941,0.0015934630304395582,3.2862151540545905E-06,-4.673516721443128E-07,0.023942835807406731,0.00066561042029647207,-0.0021697577950616082,0.0012049809322436493,-0.0016879288382438541,-0.00016104133750607366,0.015045473530791205,-0.00031364171419294093,-7.106423181212708E-05,-0.0020144747026935019,-3.4432672392498014E-06]},{"Bias":-0.29944684115704989,"Weights":[-0.0021732081675694972,-0.0022192466347245956,-8.34606516356005E-05,-0.0036940788831483725,0.030513818776528839,0.0007621791081364838,-0.00086411867539775387,0.0012296260203389251,0.0042405563718735575,-0.028282152395560679,0.04547713246515539,0.00064156635387018531,0.04288085222574177,0.023587927524527683,0.042704504698173558,0.00080289531450156843]},{"Bias":-0.001929305854817746,"Weights":[0.00069423756282893558,-0.0032316620396233174,-0.021950645071775247,-0.00010939271421189745,0.019749639332458366,-1.2169344605734163,8.3432967233451857E-06,3.3393327924698279E-06,-0.002652857921391371,-7.1525259128780912E-07,0.020791544423590221,0.00091335548483470941,-0.0015196445592929469,-6.04609330495674E-05,4.4463566639378745E-08,-8.0984010647163553E-05]},{"Bias":-0.019961833197206989,"Weights":[-0.28074918336182386,-0.026062543406364755,0.00096576193219979347,-0.0047668105678418185,0.35172374632608022,-0.34156032270815906,0.0880701022499654,0.019068028348106728,-0.017746023867121128,-0.0010724865783181426,-0.0026765518615382796,-0.057684248631853223,-0.0023757848453051619,-0.0008365837746266906,0.00834802379578796,0.0093000499363729942]},{"Bias":-0.00042437089234876707,"Weights":[-0.00074264869750886474,0.0019891503073996247,-0.00083061075522919956,-0.00090042464218233545,0.00033731315134544426,-0.000421396753705054,-0.029603869020816458,-1.4657867100044788,7.375222163826496E-05,0.002091101512157112,-2.5038239453931838E-05,0.0018556175845843269,-0.0019345571017965234,4.2066221240954444E-05,-1.8616092166414877E-05,-0.20853836041147039]},{"Bias":-0.081019003064875639,"Weights":[-0.00528714398390318,-0.0042921980681334231,6.492602977258237E-05,0.0022955472679436597,0.00014062435262936356,0.000828325916350238,0.00034525011686770189,1.2254593399506598E-05,0.00015587759230926279,0.00048232891679063762,-0.00026945825808306553,-0.00019106364974789532,-7.97824411109644E-06,9.1615444845830957E-07,-0.0025147525929104615,-1.4577399166040764E-06]}]},{"Neurons":[{"Bias":-0.0012898550306857488,"Weights":[-0.0017462500550872973,1.1969629238252334E-05,0.003657658791642484,-0.0010338361762933625,5.2702253107981654E-05,-0.00017090836551796051,-0.00017364894689621683,0.026200071938250802,-0.00035922503276766371,-0.0028818420743803512,-0.00025605909005510578,0.0033147631175414615,-0.0011367457307100242,-0.000589058584684458]},{"Bias":0.0013098795610793882,"Weights":[-0.00032130256308867051,-4.0268851214666856E-06,0.0010966881290483349,-6.3508411526051113E-05,-0.017308185931633698,-0.0020887825533251842,-0.0014149712952568217,-0.040182793317472848,-0.011661101465895364,-0.16923425141624845,-0.030134976733806166,-0.00049386806294410171,-0.00014766661190437322,-1.7391429943277842E-05]},{"Bias":0.039117289434625273,"Weights":[-4.8265112517400295E-06,-0.00083548826086694123,0.0026076734105075932,0.000295553072965779,-8.01451098372584E-06,0.059063583891791241,0.000641593553896386,-0.20216486620555979,0.063745111676273267,0.00036305970289046588,4.7994107471014484E-05,-5.281467884794338E-05,1.6393190393395443,-0.04411417658982178]},{"Bias":0.37896303667119347,"Weights":[0.00030817000378812712,4.3483220261053967E-05,-0.0035452322393938569,-1.0019461968566118E-05,-3.8439840783186807,-0.000833011730146307,-0.025061024419217651,2.6373336249775683,0.0090684739148816,-7.6404770702915369E-06,-0.00023986603578021905,0.00081546429444382751,0.0038563631612219163,-0.0029681049332397512]}]}],"act":1,"inputCount":16,"layerNeurons":[14,4]}